{"learner":{"attributes":{"scikit_learn":"{\"_estimator_type\": \"regressor\"}"},"feature_names":["Temp","SW_DWN","LW_DWN","SW_DIFF","SW_DNI","Cloud","Clearness","Humidity","Precipitation"],"feature_types":["float","float","float","float","float","float","float","float","float"],"gradient_booster":{"model":{"gbtree_model_param":{"num_parallel_tree":"1","num_trees":"50"},"iteration_indptr":[0,1,2,3,4,5,6,7,8,9,10,11,12,13,14,15,16,17,18,19,20,21,22,23,24,25,26,27,28,29,30,31,32,33,34,35,36,37,38,39,40,41,42,43,44,45,46,47,48,49,50],"tree_info":[0,0,0,0,0,0,0,0,0,0,0,0,0,0,0,0,0,0,0,0,0,0,0,0,0,0,0,0,0,0,0,0,0,0,0,0,0,0,0,0,0,0,0,0,0,0,0,0,0,0],"trees":[{"base_weights":[-1.90419E-1,-3.9820722E-1,-8.743398E-2,-4.372655E-1,-2.7751997E-2,-1.1021181E-2,-2.179607E-1,-3.805621E-2,-4.6195578E-2,1.4063097E-4,-5.8901226E-3,-2.6965722E-2,-1.13886725E-2],"categories":[],"categories_nodes":[],"categories_segments":[],"categories_sizes":[],"default_left":[0,0,0,0,0,0,0,0,0,0,0,0,0],"id":0,"left_children":[1,3,5,7,-1,9,11,-1,-1,-1,-1,-1,-1],"loss_changes":[1.4574562E1,9.437752E-1,4.5631895E0,6.0764313E-2,0E0,1.7251045E-1,8.7840843E-1,0E0,0E0,0E0,0E0,0E0,0E0],"parents":[2147483647,0,0,1,1,2,2,3,3,5,5,6,6],"right_children":[2,4,6,8,-1,10,12,-1,-1,-1,-1,-1,-1],"split_conditions":[5.2E-1,2.719E1,2.3068E2,2.67E1,-2.7751997E-2,2.2668E2,2.3748E2,-3.805621E-2,-4.6195578E-2,1.4063097E-4,-5.8901226E-3,-2.6965722E-2,-1.13886725E-2],"split_indices":[6,0,1,0,0,1,1,0,0,0,0,0,0],"split_type":[0,0,0,0,0,0,0,0,0,0,0,0,0],"sum_hessian":[6.817109E2,2.2495758E2,4.5675333E2,1.67973E2,5.6984577E1,2.887803E2,1.67973E2,5.5932556E1,1.1204045E2,2.3004236E2,5.873795E1,1.11163765E2,5.6809242E1],"tree_param":{"num_deleted":"0","num_feature":"9","num_nodes":"13","size_leaf_vector":"1"}},{"base_weights":[-1.7357488E-1,-3.6722773E-1,-7.921554E-2,-4.0411907E-1,-2.5424749E-2,-9.94672E-3,-1.9888103E-1,-3.5074092E-2,-4.274629E-2,1.2661701E-4,-5.32877E-3,-2.467367E-2,-1.0336245E-2],"categories":[],"categories_nodes":[],"categories_segments":[],"categories_sizes":[],"default_left":[0,0,0,0,0,0,0,0,0,0,0,0,0],"id":1,"left_children":[1,3,5,7,-1,9,11,-1,-1,-1,-1,-1,-1],"loss_changes":[1.2317612E1,8.1876945E-1,3.7744315E0,5.563736E-2,0E0,1.4081089E-1,7.377763E-1,0E0,0E0,0E0,0E0,0E0,0E0],"parents":[2147483647,0,0,1,1,2,2,3,3,5,5,6,6],"right_children":[2,4,6,8,-1,10,12,-1,-1,-1,-1,-1,-1],"split_conditions":[5.2E-1,2.719E1,2.3068E2,2.67E1,-2.5424749E-2,2.2668E2,2.3748E2,-3.5074092E-2,-4.274629E-2,1.2661701E-4,-5.32877E-3,-2.467367E-2,-1.0336245E-2],"split_indices":[6,0,1,0,0,1,1,0,0,0,0,0,0],"split_type":[0,0,0,0,0,0,0,0,0,0,0,0,0],"sum_hessian":[6.746817E2,2.2009363E2,4.5458804E2,1.6397432E2,5.6119316E1,2.8860886E2,1.659792E2,5.4767498E1,1.0920682E2,2.3006003E2,5.8548824E1,1.09523705E2,5.645549E1],"tree_param":{"num_deleted":"0","num_feature":"9","num_nodes":"13","size_leaf_vector":"1"}},{"base_weights":[-1.5810184E-1,-3.3823726E-1,-7.173935E-2,-3.7300694E-1,-2.3267932E-2,-8.976411E-3,-1.8130468E-1,-4.188378E-2,-3.4645434E-2,1.1400207E-4,-4.819467E-3,-2.2552138E-2,-9.375933E-3],"categories":[],"categories_nodes":[],"categories_segments":[],"categories_sizes":[],"default_left":[0,0,0,0,0,0,0,0,0,0,0,0,0],"id":2,"left_children":[1,3,5,7,-1,9,11,-1,-1,-1,-1,-1,-1],"loss_changes":[1.0386509E1,7.081642E-1,3.1176734E0,5.1145554E-2,0E0,1.14895314E-1,6.181636E-1,0E0,0E0,0E0,0E0,0E0,0E0],"parents":[2147483647,0,0,1,1,2,2,3,3,5,5,6,6],"right_children":[2,4,6,8,-1,10,12,-1,-1,-1,-1,-1,-1],"split_conditions":[5.2E-1,2.719E1,2.3068E2,4.2034E2,-2.3267932E-2,2.2668E2,2.3748E2,-4.188378E-2,-3.4645434E-2,1.1400207E-4,-4.819467E-3,-2.2552138E-2,-9.375933E-3],"split_indices":[6,0,1,2,0,1,1,0,0,0,0,0,0],"split_type":[0,0,0,0,0,0,0,0,0,0,0,0,0],"sum_hessian":[6.6820435E2,2.1559615E2,4.526082E2,1.602709E2,5.532523E1,2.8845358E2,1.6415462E2,5.3373055E1,1.0689786E2,2.3007594E2,5.837764E1,1.0802048E2,5.6134136E1],"tree_param":{"num_deleted":"0","num_feature":"9","num_nodes":"13","size_leaf_vector":"1"}},{"base_weights":[-1.4390908E-1,-3.111606E-1,-6.494296E-2,-3.4386036E-1,-2.1272186E-2,-8.100181E-3,-1.6513656E-1,-2.949222E-2,-3.655336E-2,1.0265008E-4,-4.3576197E-3,-2.05916E-2,-8.500545E-3],"categories":[],"categories_nodes":[],"categories_segments":[],"categories_sizes":[],"default_left":[0,0,0,0,0,0,0,0,0,0,0,0,0],"id":3,"left_children":[1,3,5,7,-1,9,11,-1,-1,-1,-1,-1,-1],"loss_changes":[8.739513E0,6.107235E-1,2.5717952E0,5.9625626E-2,0E0,9.3718015E-2,5.167246E-1,0E0,0E0,0E0,0E0,0E0,0E0],"parents":[2147483647,0,0,1,1,2,2,3,3,5,5,6,6],"right_children":[2,4,6,8,-1,10,12,-1,-1,-1,-1,-1,-1],"split_conditions":[5.2E-1,2.719E1,2.3068E2,2.67E1,-2.1272186E-2,2.2668E2,2.3748E2,-2.949222E-2,-3.655336E-2,1.0265008E-4,-4.3576197E-3,-2.05916E-2,-8.500545E-3],"split_indices":[6,0,1,0,0,1,1,0,0,0,0,0,0],"split_type":[0,0,0,0,0,0,0,0,0,0,0,0,0],"sum_hessian":[6.6225336E2,2.114527E2,4.5080066E2,1.5685487E2,5.4597824E1,2.8831302E2,1.6248763E2,5.262817E1,1.042267E2,2.3009029E2,5.822275E1,1.06645195E2,5.5842434E1],"tree_param":{"num_deleted":"0","num_feature":"9","num_nodes":"13","size_leaf_vector":"1"}},{"base_weights":[-1.3089235E-1,-2.8587702E-1,-5.876865E-2,-3.1655172E-1,-1.9428417E-2,-7.3092137E-3,-1.5028474E-1,-3.5953995E-2,-2.9197026E-2,9.241674E-5,-3.9390563E-3,-1.8782763E-2,-7.703277E-3],"categories":[],"categories_nodes":[],"categories_segments":[],"categories_sizes":[],"default_left":[0,0,0,0,0,0,0,0,0,0,0,0,0],"id":4,"left_children":[1,3,5,7,-1,9,11,-1,-1,-1,-1,-1,-1],"loss_changes":[7.336034E0,5.246868E-1,2.1188354E0,5.850315E-2,0E0,7.642137E-2,4.309547E-1,0E0,0E0,0E0,0E0,0E0,0E0],"parents":[2147483647,0,0,1,1,2,2,3,3,5,5,6,6],"right_children":[2,4,6,8,-1,10,12,-1,-1,-1,-1,-1,-1],"split_conditions":[5.2E-1,2.719E1,2.3068E2,4.2034E2,-1.9428417E-2,2.2668E2,2.3748E2,-3.5953995E-2,-2.9197026E-2,9.241674E-5,-3.9390563E-3,-1.8782763E-2,-7.703277E-3],"split_indices":[6,0,1,2,0,1,1,0,0,0,0,0,0],"split_type":[0,0,0,0,0,0,0,0,0,0,0,0,0],"sum_hessian":[6.5679126E2,2.0763857E2,4.4915268E2,1.5370596E2,5.3932594E1,2.8818585E2,1.6096683E2,5.0960117E1,1.0274586E2,2.3010318E2,5.8082657E1,1.05389015E2,5.557782E1],"tree_param":{"num_deleted":"0","num_feature":"9","num_nodes":"13","size_leaf_vector":"1"}},{"base_weights":[-1.18978776E-1,-2.6234072E-1,-5.3162895E-2,-2.9105136E-1,-1.7727738E-2,-6.595041E-3,-1.3666111E-1,-2.4658581E-2,-3.1098997E-2,8.321701E-5,-3.559877E-3,-1.7116597E-2,-6.9777826E-3],"categories":[],"categories_nodes":[],"categories_segments":[],"categories_sizes":[],"default_left":[0,0,0,0,0,0,0,0,0,0,0,0,0],"id":5,"left_children":[1,3,5,7,-1,9,11,-1,-1,-1,-1,-1,-1],"loss_changes":[6.14548E0,4.4940376E-1,1.7436067E0,5.7911873E-2,0E0,6.230033E-2,3.5864568E-1,0E0,0E0,0E0,0E0,0E0,0E0],"parents":[2147483647,0,0,1,1,2,2,3,3,5,5,6,6],"right_children":[2,4,6,8,-1,10,12,-1,-1,-1,-1,-1,-1],"split_conditions":[5.2E-1,2.719E1,2.3068E2,2.67E1,-1.7727738E-2,2.2668E2,2.3748E2,-2.4658581E-2,-3.1098997E-2,8.321701E-5,-3.559877E-3,-1.7116597E-2,-6.9777826E-3],"split_indices":[6,0,1,0,0,1,1,0,0,0,0,0,0],"split_type":[0,0,0,0,0,0,0,0,0,0,0,0,0],"sum_hessian":[6.517932E2,2.0414122E2,4.4765198E2,1.5081612E2,5.3325108E1,2.8807077E2,1.5958119E2,5.082885E1,9.998727E1,2.3011479E2,5.7955982E1,1.0424327E2,5.533792E1],"tree_param":{"num_deleted":"0","num_feature":"9","num_nodes":"13","size_leaf_vector":"1"}},{"base_weights":[-1.0807474E-1,-2.4043657E-1,-4.807633E-2,-2.6723874E-1,-1.6161462E-2,-5.9503173E-3,-1.2418059E-1,-3.0723814E-2,-2.4466123E-2,7.494058E-5,-3.2165248E-3,-1.5584233E-2,-6.31812E-3],"categories":[],"categories_nodes":[],"categories_segments":[],"categories_sizes":[],"default_left":[0,0,0,0,0,0,0,0,0,0,0,0,0],"id":6,"left_children":[1,3,5,7,-1,9,11,-1,-1,-1,-1,-1,-1],"loss_changes":[5.1362906E0,3.8341713E-1,1.433249E0,5.9537888E-2,0E0,5.0776128E-2,2.9785585E-1,0E0,0E0,0E0,0E0,0E0,0E0],"parents":[2147483647,0,0,1,1,2,2,3,3,5,5,6,6],"right_children":[2,4,6,8,-1,10,12,-1,-1,-1,-1,-1,-1],"split_conditions":[5.2E-1,2.719E1,2.3068E2,4.2034E2,-1.6161462E-2,2.2668E2,2.3748E2,-3.0723814E-2,-2.4466123E-2,7.494058E-5,-3.2165248E-3,-1.5584233E-2,-6.31812E-3],"split_indices":[6,0,1,2,0,1,1,0,0,0,0,0,0],"split_type":[0,0,0,0,0,0,0,0,0,0,0,0,0],"sum_hessian":[6.472214E2,2.0093452E2,4.4628683E2,1.4816347E2,5.2771057E1,2.8796674E2,1.5832013E2,4.8907856E1,9.925561E1,2.3012526E2,5.784147E1,1.0319958E2,5.5120552E1],"tree_param":{"num_deleted":"0","num_feature":"9","num_nodes":"13","size_leaf_vector":"1"}},{"base_weights":[-9.8116465E-2,-2.2012147E-1,-4.346359E-2,-2.4508785E-1,-1.4721148E-2,-5.3685545E-3,-1.12761825E-1,-2.8271293E-2,-2.2394981E-2,6.7468754E-5,-2.905739E-3,-1.4177078E-2,-5.7187234E-3],"categories":[],"categories_nodes":[],"categories_segments":[],"categories_sizes":[],"default_left":[0,0,0,0,0,0,0,0,0,0,0,0,0],"id":7,"left_children":[1,3,5,7,-1,9,11,-1,-1,-1,-1,-1,-1],"loss_changes":[4.284917E0,3.2616806E-1,1.1769208E0,5.3390503E-2,0E0,4.1373856E-2,2.4689364E-1,0E0,0E0,0E0,0E0,0E0,0E0],"parents":[2147483647,0,0,1,1,2,2,3,3,5,5,6,6],"right_children":[2,4,6,8,-1,10,12,-1,-1,-1,-1,-1,-1],"split_conditions":[5.2E-1,2.719E1,2.3068E2,4.2034E2,-1.4721148E-2,2.2668E2,2.3748E2,-2.8271293E-2,-2.2394981E-2,6.7468754E-5,-2.905739E-3,-1.4177078E-2,-5.7187234E-3],"split_indices":[6,0,1,2,0,1,1,0,0,0,0,0,0],"split_type":[0,0,0,0,0,0,0,0,0,0,0,0,0],"sum_hessian":[6.4305115E2,1.9800487E2,4.4504626E2,1.4573853E2,5.226634E1,2.8787265E2,1.5717361E2,4.797312E1,9.77654E1,2.3013467E2,5.773798E1,1.0224994E2,5.4923676E1],"tree_param":{"num_deleted":"0","num_feature":"9","num_nodes":"13","size_leaf_vector":"1"}},{"base_weights":[-8.902536E-2,-2.0129849E-1,-3.9282583E-2,-2.2450112E-1,-1.3398546E-2,-4.8434E-3,-1.0232714E-1,-1.857736E-2,-2.4221376E-2,6.075054E-5,-2.624518E-3,-7.441809E-3,-1.5604588E-2],"categories":[],"categories_nodes":[],"categories_segments":[],"categories_sizes":[],"default_left":[0,0,0,0,0,0,0,0,0,0,0,0,0],"id":8,"left_children":[1,3,5,7,-1,9,11,-1,-1,-1,-1,-1,-1],"loss_changes":[3.5677423E0,2.765541E-1,9.655156E-1,5.414152E-2,0E0,3.3705644E-2,2.23966E-1,0E0,0E0,0E0,0E0,0E0,0E0],"parents":[2147483647,0,0,1,1,2,2,3,3,5,5,6,6],"right_children":[2,4,6,8,-1,10,12,-1,-1,-1,-1,-1,-1],"split_conditions":[5.2E-1,2.719E1,2.3068E2,2.67E1,-1.3398546E-2,2.2668E2,2.784E1,-1.857736E-2,-2.4221376E-2,6.075054E-5,-2.624518E-3,-7.441809E-3,-1.5604588E-2],"split_indices":[6,0,1,0,0,1,0,0,0,0,0,0,0],"split_type":[0,0,0,0,0,0,0,0,0,0,0,0,0],"sum_hessian":[6.3924927E2,1.9532945E2,4.439198E2,1.4352246E2,5.1807E1,2.8778763E2,1.5613219E2,4.864706E1,9.48754E1,2.3014316E2,5.7644474E1,1.04319405E2,5.181278E1],"tree_param":{"num_deleted":"0","num_feature":"9","num_nodes":"13","size_leaf_vector":"1"}},{"base_weights":[-8.07356E-2,-1.838735E-1,-3.5505533E-2,-2.053834E-1,-1.2185739E-2,-4.3696053E-3,-9.283032E-2,-2.3991367E-2,-1.8622145E-2,5.4684275E-5,-2.3701424E-3,-6.735289E-3,-1.4211371E-2],"categories":[],"categories_nodes":[],"categories_segments":[],"categories_sizes":[],"default_left":[0,0,0,0,0,0,0,0,0,0,0,0,0],"id":9,"left_children":[1,3,5,7,-1,9,11,-1,-1,-1,-1,-1,-1],"loss_changes":[2.9640613E0,2.3361063E-1,7.919021E-1,4.9609184E-2,0E0,2.7453156E-2,1.8654716E-1,0E0,0E0,0E0,0E0,0E0,0E0],"parents":[2147483647,0,0,1,1,2,2,3,3,5,5,6,6],"right_children":[2,4,6,8,-1,10,12,-1,-1,-1,-1,-1,-1],"split_conditions":[5.2E-1,2.719E1,2.3068E2,4.2034E2,-1.2185739E-2,2.2668E2,2.784E1,-2.3991367E-2,-1.8622145E-2,5.4684275E-5,-2.3701424E-3,-6.735289E-3,-1.4211371E-2],"split_indices":[6,0,1,2,0,1,0,0,0,0,0,0,0],"split_type":[0,0,0,0,0,0,0,0,0,0,0,0,0],"sum_hessian":[6.3579156E2,1.92887E2,4.4290454E2,1.4149763E2,5.1389355E1,2.8771082E2,1.5519374E2,4.638699E1,9.511064E1,2.301508E2,5.7559998E1,1.03866035E2,5.1327713E1],"tree_param":{"num_deleted":"0","num_feature":"9","num_nodes":"13","size_leaf_vector":"1"}},{"base_weights":[-7.3186785E-2,-1.6780275E-1,-3.208433E-2,-1.8770593E-1,-1.1075062E-2,-3.941947E-3,-8.4169134E-2,-1.5322441E-2,-2.0365423E-2,4.923597E-5,-2.1401208E-3,-1.0850762E-2,-3.8181122E-3],"categories":[],"categories_nodes":[],"categories_segments":[],"categories_sizes":[],"default_left":[0,0,0,0,0,0,0,0,0,0,0,0,0],"id":10,"left_children":[1,3,5,7,-1,9,11,-1,-1,-1,-1,-1,-1],"loss_changes":[2.4588408E0,1.968503E-1,6.489895E-1,4.6144485E-2,0E0,2.2357075E-2,1.6972828E-1,0E0,0E0,0E0,0E0,0E0,0E0],"parents":[2147483647,0,0,1,1,2,2,3,3,5,5,6,6],"right_children":[2,4,6,8,-1,10,12,-1,-1,-1,-1,-1,-1],"split_conditions":[5.2E-1,2.719E1,2.3068E2,2.67E1,-1.1075062E-2,2.2668E2,2.3748E2,-1.5322441E-2,-2.0365423E-2,4.923597E-5,-2.1401208E-3,-1.0850762E-2,-3.8181122E-3],"split_indices":[6,0,1,0,0,1,1,0,0,0,0,0,0],"split_type":[0,0,0,0,0,0,0,0,0,0,0,0,0],"sum_hessian":[6.3264825E2,1.9066457E2,4.4198367E2,1.3965463E2,5.100993E1,2.876414E2,1.5434229E2,4.752E1,9.213463E1,2.3015768E2,5.7483704E1,1.00038765E2,5.430352E1],"tree_param":{"num_deleted":"0","num_feature":"9","num_nodes":"13","size_leaf_vector":"1"}},{"base_weights":[-6.630247E-2,-1.5297563E-1,-2.897747E-2,-1.7134936E-1,-1.0059143E-2,-3.556043E-3,-7.625296E-2,-2.0279622E-2,-1.5410209E-2,4.4329394E-5,-1.9321671E-3,-5.4090093E-3,-1.1949259E-2],"categories":[],"categories_nodes":[],"categories_segments":[],"categories_sizes":[],"default_left":[0,0,0,0,0,0,0,0,0,0,0,0,0],"id":11,"left_children":[1,3,5,7,-1,9,11,-1,-1,-1,-1,-1,-1],"loss_changes":[2.0361977E0,1.6529083E-1,5.311008E-1,4.4124603E-2,0E0,1.8204043E-2,1.4165777E-1,0E0,0E0,0E0,0E0,0E0,0E0],"parents":[2147483647,0,0,1,1,2,2,3,3,5,5,6,6],"right_children":[2,4,6,8,-1,10,12,-1,-1,-1,-1,-1,-1],"split_conditions":[5.2E-1,2.719E1,2.3068E2,4.2034E2,-1.0059143E-2,2.2668E2,2.784E1,-2.0279622E-2,-1.5410209E-2,4.4329394E-5,-1.9321671E-3,-5.4090093E-3,-1.1949259E-2],"split_indices":[6,0,1,2,0,1,0,0,0,0,0,0,0],"split_type":[0,0,0,0,0,0,0,0,0,0,0,0,0],"sum_hessian":[6.2978284E2,1.8863985E2,4.41143E2,1.3797438E2,5.066547E1,2.8757867E2,1.5356435E2,4.505953E1,9.291485E1,2.3016386E2,5.7414806E1,1.0301435E2,5.055E1],"tree_param":{"num_deleted":"0","num_feature":"9","num_nodes":"13","size_leaf_vector":"1"}},{"base_weights":[-6.005067E-2,-1.393483E-1,-2.617507E-2,-1.5628248E-1,-9.1309715E-3,-3.207691E-3,-6.907254E-2,-1.2581966E-2,-1.705203E-2,3.9930615E-5,-1.7442188E-3,-9.029667E-3,-2.9297045E-3],"categories":[],"categories_nodes":[],"categories_segments":[],"categories_sizes":[],"default_left":[0,0,0,0,0,0,0,0,0,0,0,0,0],"id":12,"left_children":[1,3,5,7,-1,9,11,-1,-1,-1,-1,-1,-1],"loss_changes":[1.6838267E0,1.3850522E-1,4.346516E-1,3.8159847E-2,0E0,1.4820777E-2,1.272474E-1,0E0,0E0,0E0,0E0,0E0,0E0],"parents":[2147483647,0,0,1,1,2,2,3,3,5,5,6,6],"right_children":[2,4,6,8,-1,10,12,-1,-1,-1,-1,-1,-1],"split_conditions":[5.2E-1,2.719E1,2.3068E2,2.67E1,-9.1309715E-3,2.2668E2,2.3748E2,-1.2581966E-2,-1.705203E-2,3.9930615E-5,-1.7442188E-3,-9.029667E-3,-2.9297045E-3],"split_indices":[6,0,1,0,0,1,1,0,0,0,0,0,0],"split_type":[0,0,0,0,0,0,0,0,0,0,0,0,0],"sum_hessian":[6.2718835E2,1.8680133E2,4.4038702E2,1.3644838E2,5.035295E1,2.87522E2,1.52865E2,4.6594086E1,8.985429E1,2.3016942E2,5.7352592E1,9.8849144E1,5.401585E1],"tree_param":{"num_deleted":"0","num_feature":"9","num_nodes":"13","size_leaf_vector":"1"}},{"base_weights":[-5.4357324E-2,-1.2681457E-1,-2.3631556E-2,-1.4238867E-1,-8.28389E-3,-2.893653E-3,-6.251944E-2,-1.7082853E-2,-1.26962615E-2,3.593806E-5,-1.5743918E-3,-4.329461E-3,-1.0031673E-2],"categories":[],"categories_nodes":[],"categories_segments":[],"categories_sizes":[],"default_left":[0,0,0,0,0,0,0,0,0,0,0,0,0],"id":13,"left_children":[1,3,5,7,-1,9,11,-1,-1,-1,-1,-1,-1],"loss_changes":[1.3902833E0,1.1568093E-1,3.552208E-1,3.800249E-2,0E0,1.2064418E-2,1.06998205E-1,0E0,0E0,0E0,0E0,0E0,0E0],"parents":[2147483647,0,0,1,1,2,2,3,3,5,5,6,6],"right_children":[2,4,6,8,-1,10,12,-1,-1,-1,-1,-1,-1],"split_conditions":[5.2E-1,2.719E1,2.3068E2,4.2034E2,-8.28389E-3,2.2668E2,2.784E1,-1.7082853E-2,-1.26962615E-2,3.593806E-5,-1.5743918E-3,-4.329461E-3,-1.0031673E-2],"split_indices":[6,0,1,2,0,1,0,0,0,0,0,0,0],"split_type":[0,0,0,0,0,0,0,0,0,0,0,0,0],"sum_hessian":[6.248264E2,1.8512914E2,4.3969727E2,1.3505956E2,5.0069584E1,2.874709E2,1.5222638E2,4.3952885E1,9.110667E1,2.3017447E2,5.7296432E1,1.0232584E2,4.990054E1],"tree_param":{"num_deleted":"0","num_feature":"9","num_nodes":"13","size_leaf_vector":"1"}},{"base_weights":[-4.9195357E-2,-1.1533155E-1,-2.1339346E-2,-1.2963524E-1,-7.511576E-3,-2.6100795E-3,-5.6586884E-2,-1.5596603E-2,-1.154039E-2,3.2368593E-5,-1.4209468E-3,-7.502906E-3,-2.2276577E-3],"categories":[],"categories_nodes":[],"categories_segments":[],"categories_sizes":[],"default_left":[0,0,0,0,0,0,0,0,0,0,0,0,0],"id":14,"left_children":[1,3,5,7,-1,9,11,-1,-1,-1,-1,-1,-1],"loss_changes":[1.146559E0,9.64582E-2,2.9037428E-1,3.251362E-2,0E0,9.8196585E-3,9.4920844E-2,0E0,0E0,0E0,0E0,0E0,0E0],"parents":[2147483647,0,0,1,1,2,2,3,3,5,5,6,6],"right_children":[2,4,6,8,-1,10,12,-1,-1,-1,-1,-1,-1],"split_conditions":[5.2E-1,2.719E1,2.3068E2,4.2034E2,-7.511576E-3,2.2668E2,2.3748E2,-1.5596603E-2,-1.154039E-2,3.2368593E-5,-1.4209468E-3,-7.502906E-3,-2.2276577E-3],"split_indices":[6,0,1,2,0,1,1,0,0,0,0,0,0],"split_type":[0,0,0,0,0,0,0,0,0,0,0,0,0],"sum_hessian":[6.22691E2,1.8361322E2,4.3907776E2,1.3380045E2,4.981277E1,2.874247E2,1.5165305E2,4.345002E1,9.0350426E1,2.3017899E2,5.7245724E1,9.786352E1,5.3789536E1],"tree_param":{"num_deleted":"0","num_feature":"9","num_nodes":"13","size_leaf_vector":"1"}},{"base_weights":[-4.450401E-2,-1.0481227E-1,-1.9259525E-2,-1.1792834E-1,-6.8080905E-3,-1.0838981E-2,-8.411485E-3,-9.233962E-3,-1.3008433E-2,-4.993089E-3,-5.2023126E-4],"categories":[],"categories_nodes":[],"categories_segments":[],"categories_sizes":[],"default_left":[0,0,0,0,0,0,0,0,0,0,0],"id":15,"left_children":[1,3,5,7,-1,9,-1,-1,-1,-1,-1],"loss_changes":[9.4456637E-1,8.025026E-2,2.3911367E-1,2.956307E-2,0E0,8.57099E-2,0E0,0E0,0E0,0E0,0E0],"parents":[2147483647,0,0,1,1,2,2,3,3,5,5],"right_children":[2,4,6,8,-1,10,-1,-1,-1,-1,-1],"split_conditions":[5.2E-1,2.719E1,2.784E1,2.67E1,-6.8080905E-3,9.71E1,-8.411485E-3,-9.233962E-3,-1.3008433E-2,-4.993089E-3,-5.2023126E-4],"split_indices":[6,0,0,0,0,3,0,0,0,0,0],"split_type":[0,0,0,0,0,0,0,0,0,0,0],"sum_hessian":[6.2075073E2,1.82238E2,4.385127E2,1.3265787E2,4.958014E1,3.8915372E2,4.9358974E1,4.5492023E1,8.716585E1,4.8050632E1,3.411031E2],"tree_param":{"num_deleted":"0","num_feature":"9","num_nodes":"11","size_leaf_vector":"1"}},{"base_weights":[-4.024981E-2,-9.5176004E-2,-1.7388586E-2,-1.0718081E-1,-6.1678486E-3,-1.8364489E-3,-4.6829067E-2,-1.3073507E-2,-9.4576655E-3,8.096589E-5,-1.231586E-3,-3.1990297E-3,-7.6284916E-3],"categories":[],"categories_nodes":[],"categories_segments":[],"categories_sizes":[],"default_left":[0,0,0,0,0,0,0,0,0,0,0,0,0],"id":16,"left_children":[1,3,5,7,-1,9,11,-1,-1,-1,-1,-1,-1],"loss_changes":[7.768624E-1,6.657314E-2,2.0091882E-1,2.7007937E-2,0E0,8.004453E-3,6.38687E-2,0E0,0E0,0E0,0E0,0E0,0E0],"parents":[2147483647,0,0,1,1,2,2,3,3,5,5,6,6],"right_children":[2,4,6,8,-1,10,12,-1,-1,-1,-1,-1,-1],"split_conditions":[5.2E-1,2.719E1,2.3068E2,4.2034E2,-6.1678486E-3,2.2668E2,2.784E1,-1.3073507E-2,-9.4576655E-3,8.096589E-5,-1.231586E-3,-3.1990297E-3,-7.6284916E-3],"split_indices":[6,0,1,2,0,1,0,0,0,0,0,0,0],"split_type":[0,0,0,0,0,0,0,0,0,0,0,0,0],"sum_hessian":[6.1899664E2,1.8098952E2,4.3800714E2,1.3162001E2,4.9369503E1,2.8730087E2,1.5070628E2,4.261329E1,8.900672E1,2.3011765E2,5.7183212E1,1.0160664E2,4.909964E1],"tree_param":{"num_deleted":"0","num_feature":"9","num_nodes":"13","size_leaf_vector":"1"}},{"base_weights":[-3.6394928E-2,-8.638368E-2,-1.5696282E-2,-9.736062E-2,-5.5856113E-3,-1.6571372E-3,-4.2345334E-2,-7.5059845E-3,-1.0804761E-2,7.2892755E-5,-1.1113541E-3,-5.635843E-3,-1.6503998E-3],"categories":[],"categories_nodes":[],"categories_segments":[],"categories_sizes":[],"default_left":[0,0,0,0,0,0,0,0,0,0,0,0,0],"id":17,"left_children":[1,3,5,7,-1,9,11,-1,-1,-1,-1,-1,-1],"loss_changes":[6.385106E-1,5.5168033E-2,1.6400386E-1,2.327323E-2,0E0,6.5125376E-3,5.3849846E-2,0E0,0E0,0E0,0E0,0E0,0E0],"parents":[2147483647,0,0,1,1,2,2,3,3,5,5,6,6],"right_children":[2,4,6,8,-1,10,12,-1,-1,-1,-1,-1,-1],"split_conditions":[5.2E-1,2.719E1,2.3068E2,2.67E1,-5.5856113E-3,2.2668E2,2.3748E2,-7.5059845E-3,-1.0804761E-2,7.2892755E-5,-1.1113541E-3,-5.635843E-3,-1.6503998E-3],"split_indices":[6,0,1,0,0,1,1,0,0,0,0,0,0],"split_type":[0,0,0,0,0,0,0,0,0,0,0,0,0],"sum_hessian":[6.174082E2,1.798599E2,4.375483E2,1.3068105E2,4.917884E1,2.8727136E2,1.5027695E2,4.493589E1,8.5745155E1,2.3012782E2,5.7143547E1,9.6672806E1,5.3604137E1],"tree_param":{"num_deleted":"0","num_feature":"9","num_nodes":"13","size_leaf_vector":"1"}},{"base_weights":[-3.2893572E-2,-7.834741E-2,-1.4161476E-2,-1.0933175E-2,-6.8136774E-2,-7.783735E-3,-6.3859853E-3,-7.7253394E-3,-5.056532E-3,-3.6749244E-3,-3.638865E-4],"categories":[],"categories_nodes":[],"categories_segments":[],"categories_sizes":[],"default_left":[0,0,0,0,0,0,0,0,0,0,0],"id":18,"left_children":[1,3,5,-1,7,9,-1,-1,-1,-1,-1],"loss_changes":[5.242029E-1,4.9445033E-2,1.3837412E-1,0E0,1.818651E-2,4.6621628E-2,0E0,0E0,0E0,0E0,0E0],"parents":[2147483647,0,0,1,1,2,2,4,4,5,5],"right_children":[2,4,6,-1,8,10,-1,-1,-1,-1,-1],"split_conditions":[5.2E-1,4.2034E2,2.784E1,-1.0933175E-2,2.719E1,9.71E1,-6.3859853E-3,-7.7253394E-3,-5.056532E-3,-3.6749244E-3,-3.638865E-4],"split_indices":[6,2,0,0,0,3,0,0,0,0,0],"split_type":[0,0,0,0,0,0,0,0,0,0,0],"sum_hessian":[6.159654E2,1.7883527E2,4.3713013E2,4.1920162E1,1.369151E2,3.884388E2,4.8691322E1,8.790877E1,4.9006336E1,4.764138E1,3.4079742E2],"tree_param":{"num_deleted":"0","num_feature":"9","num_nodes":"11","size_leaf_vector":"1"}},{"base_weights":[-2.9729731E-2,-7.103191E-2,-1.2781793E-2,-9.942486E-3,-6.170449E-2,-7.0193186E-3,-5.7843416E-3,-6.9992426E-3,-4.5760586E-3,-3.3228174E-3,-3.2765622E-4],"categories":[],"categories_nodes":[],"categories_segments":[],"categories_sizes":[],"default_left":[0,0,0,0,0,0,0,0,0,0,0],"id":19,"left_children":[1,3,5,-1,7,9,-1,-1,-1,-1,-1],"loss_changes":[4.3004984E-1,4.1246057E-2,1.1326463E-1,0E0,1.4940858E-2,3.8075075E-2,0E0,0E0,0E0,0E0,0E0],"parents":[2147483647,0,0,1,1,2,2,4,4,5,5],"right_children":[2,4,6,-1,8,10,-1,-1,-1,-1,-1],"split_conditions":[5.2E-1,4.2034E2,2.784E1,-9.942486E-3,2.719E1,9.71E1,-5.7843416E-3,-6.9992426E-3,-4.5760586E-3,-3.3228174E-3,-3.2765622E-4],"split_indices":[6,2,0,0,0,3,0,0,0,0,0],"split_type":[0,0,0,0,0,0,0,0,0,0,0],"sum_hessian":[6.1466547E2,1.7790913E2,4.3675635E2,4.1604496E1,1.3630464E2,3.8826132E2,4.849504E1,8.7454346E1,4.885029E1,4.7532734E1,3.4072858E2],"tree_param":{"num_deleted":"0","num_feature":"9","num_nodes":"11","size_leaf_vector":"1"}},{"base_weights":[-2.6864639E-2,-6.436828E-2,-1.1535673E-2,-9.03559E-3,-5.5855658E-2,-8.064159E-4,-3.202996E-2,-7.1383263E-3,-4.8030796E-3,1.3453401E-4,-9.3517016E-4,-2.1876013E-3,-5.237417E-3],"categories":[],"categories_nodes":[],"categories_segments":[],"categories_sizes":[],"default_left":[0,0,0,0,0,0,0,0,0,0,0,0,0],"id":20,"left_children":[1,3,5,-1,7,9,11,-1,-1,-1,-1,-1,-1],"loss_changes":[3.5252255E-1,3.43464E-2,9.6157506E-2,0E0,1.3187021E-2,5.310635E-3,2.9898822E-2,0E0,0E0,0E0,0E0,0E0,0E0],"parents":[2147483647,0,0,1,1,2,2,4,4,5,5,6,6],"right_children":[2,4,6,-1,8,10,12,-1,-1,-1,-1,-1,-1],"split_conditions":[5.2E-1,4.2034E2,2.3068E2,-9.03559E-3,2.0951E2,2.2668E2,2.784E1,-7.1383263E-3,-4.8030796E-3,1.3453401E-4,-9.3517016E-4,-2.1876013E-3,-5.237417E-3],"split_indices":[6,2,1,0,1,1,0,0,0,0,0,0,0],"split_type":[0,0,0,0,0,0,0,0,0,0,0,0,0],"sum_hessian":[6.1348956E2,1.7707098E2,4.364186E2,4.131838E1,1.3575261E2,2.8713553E2,1.4928308E2,4.276581E1,9.29868E1,2.3005005E2,5.7085472E1,1.0096566E2,4.831742E1],"tree_param":{"num_deleted":"0","num_feature":"9","num_nodes":"13","size_leaf_vector":"1"}},{"base_weights":[-2.4272917E-2,-5.83117E-2,-1.0409563E-2,-8.206415E-3,-5.055185E-2,-7.286888E-4,-2.8936625E-2,-5.7741604E-3,-3.681025E-3,1.211221E-4,-8.4372016E-4,-1.9736926E-3,-4.740601E-3],"categories":[],"categories_nodes":[],"categories_segments":[],"categories_sizes":[],"default_left":[0,0,0,0,0,0,0,0,0,0,0,0,0],"id":21,"left_children":[1,3,5,-1,7,9,11,-1,-1,-1,-1,-1,-1],"loss_changes":[2.8886378E-1,2.853322E-2,7.837851E-2,0E0,1.1336386E-2,4.3187486E-3,2.45495E-2,0E0,0E0,0E0,0E0,0E0,0E0],"parents":[2147483647,0,0,1,1,2,2,4,4,5,5,6,6],"right_children":[2,4,6,-1,8,10,12,-1,-1,-1,-1,-1,-1],"split_conditions":[5.2E-1,4.2034E2,2.3068E2,-8.206415E-3,2.719E1,2.2668E2,2.784E1,-5.7741604E-3,-3.681025E-3,1.211221E-4,-8.4372016E-4,-1.9736926E-3,-4.740601E-3],"split_indices":[6,2,1,0,0,1,0,0,0,0,0,0,0],"split_type":[0,0,0,0,0,0,0,0,0,0,0,0,0],"sum_hessian":[6.124263E2,1.7631433E2,4.361119E2,4.1059155E1,1.3525519E2,2.871223E2,1.489896E2,8.6694E1,4.8561176E1,2.3006697E2,5.705535E1,1.0083285E2,4.815675E1],"tree_param":{"num_deleted":"0","num_feature":"9","num_nodes":"13","size_leaf_vector":"1"}},{"base_weights":[-2.1925235E-2,-5.2796498E-2,-9.392658E-3,-7.4491664E-3,-4.572613E-2,-6.5838976E-4,-2.6137019E-2,-5.9329974E-3,-3.8917665E-3,-2.5091504E-4,6.67297E-4,-3.4883774E-3,-1.0169572E-3],"categories":[],"categories_nodes":[],"categories_segments":[],"categories_sizes":[],"default_left":[0,0,0,0,0,0,0,0,0,0,0,0,0],"id":22,"left_children":[1,3,5,-1,7,9,11,-1,-1,-1,-1,-1,-1],"loss_changes":[2.3646402E-1,2.3687273E-2,6.386977E-2,0E0,1.0269344E-2,3.925995E-3,2.0556279E-2,0E0,0E0,0E0,0E0,0E0,0E0],"parents":[2147483647,0,0,1,1,2,2,4,4,5,5,6,6],"right_children":[2,4,6,-1,8,10,12,-1,-1,-1,-1,-1,-1],"split_conditions":[5.2E-1,4.2034E2,2.3068E2,-7.4491664E-3,2.0951E2,6.435E1,2.3748E2,-5.9329974E-3,-3.8917665E-3,-2.5091504E-4,6.67297E-4,-3.4883774E-3,-1.0169572E-3],"split_indices":[6,2,1,0,1,5,1,0,0,0,0,0,0],"split_type":[0,0,0,0,0,0,0,0,0,0,0,0,0],"sum_hessian":[6.114632E2,1.7562837E2,4.3583484E2,4.0824398E1,1.3480399E2,2.8711035E2,1.4872447E2,4.239046E1,9.241352E1,2.2976518E2,5.734518E1,9.532307E1,5.340141E1],"tree_param":{"num_deleted":"0","num_feature":"9","num_nodes":"13","size_leaf_vector":"1"}},{"base_weights":[-1.9799221E-2,-4.7792006E-2,-8.468494E-3,-5.446642E-2,-2.954701E-3,-4.533619E-3,-3.9568446E-3,-4.055062E-3,-6.1261966E-3,-2.2669586E-3,-1.9599058E-4],"categories":[],"categories_nodes":[],"categories_segments":[],"categories_sizes":[],"default_left":[0,0,0,0,0,0,0,0,0,0,0],"id":23,"left_children":[1,3,5,7,-1,9,-1,-1,-1,-1,-1],"loss_changes":[1.9357918E-1,1.9824237E-2,5.3247124E-2,9.59003E-3,0E0,1.80978E-2,0E0,0E0,0E0,0E0,0E0],"parents":[2147483647,0,0,1,1,2,2,3,3,5,5],"right_children":[2,4,6,8,-1,10,-1,-1,-1,-1,-1],"split_conditions":[5.2E-1,2.719E1,2.784E1,2.67E1,-2.954701E-3,9.71E1,-3.9568446E-3,-4.055062E-3,-6.1261966E-3,-2.2669586E-3,-1.9599058E-4],"split_indices":[6,0,0,0,0,3,0,0,0,0,0],"split_type":[0,0,0,0,0,0,0,0,0,0,0],"sum_hessian":[6.10592E2,1.7500952E2,4.3558243E2,1.2668146E2,4.8328068E1,3.8767786E2,4.7904587E1,4.3851135E1,8.283032E1,4.7208645E1,3.404692E2],"tree_param":{"num_deleted":"0","num_feature":"9","num_nodes":"11","size_leaf_vector":"1"}},{"base_weights":[-1.7877173E-2,-4.323368E-2,-7.6410226E-3,-6.1876085E-3,-3.7191715E-2,-3.9585883E-4,-2.1570148E-2,-4.2714085E-3,-2.6704015E-3,3.7884017E-4,-3.2496994E-4,-1.4525475E-3,-3.5786068E-3],"categories":[],"categories_nodes":[],"categories_segments":[],"categories_sizes":[],"default_left":[0,0,0,0,0,0,0,0,0,0,0,0,0],"id":24,"left_children":[1,3,5,-1,7,9,11,-1,-1,-1,-1,-1,-1],"loss_changes":[1.5820594E-1,1.7460614E-2,4.4028122E-2,0E0,6.6787302E-3,3.452198E-3,1.4430948E-2,0E0,0E0,0E0,0E0,0E0,0E0],"parents":[2147483647,0,0,1,1,2,2,4,4,5,5,6,6],"right_children":[2,4,6,-1,8,10,12,-1,-1,-1,-1,-1,-1],"split_conditions":[5.2E-1,4.2034E2,2.3068E2,-6.1876085E-3,2.719E1,2.0526E2,2.784E1,-4.2714085E-3,-2.6704015E-3,3.7884017E-4,-3.2496994E-4,-1.4525475E-3,-3.5786068E-3],"split_indices":[6,2,1,0,0,1,0,0,0,0,0,0,0],"split_type":[0,0,0,0,0,0,0,0,0,0,0,0,0],"sum_hessian":[6.098051E2,1.7444775E2,4.3535736E2,4.043746E1,1.3401028E2,2.8706854E2,1.4828882E2,8.57731E1,4.8237186E1,1.1626904E2,1.707995E2,1.0050535E2,4.778347E1],"tree_param":{"num_deleted":"0","num_feature":"9","num_nodes":"13","size_leaf_vector":"1"}},{"base_weights":[-1.6140314E-2,-3.9104912E-2,-6.892208E-3,-5.608896E-3,-3.3611156E-2,-3.5620673E-4,-1.947431E-2,-4.3943473E-3,-2.8468382E-3,1.2770775E-4,-6.8563235E-4,-1.3099198E-3,-3.2357406E-3],"categories":[],"categories_nodes":[],"categories_segments":[],"categories_sizes":[],"default_left":[0,0,0,0,0,0,0,0,0,0,0,0,0],"id":25,"left_children":[1,3,5,-1,7,9,11,-1,-1,-1,-1,-1,-1],"loss_changes":[1.2930171E-1,1.4437854E-2,3.586083E-2,0E0,5.9054196E-3,3.0669763E-3,1.1821181E-2,0E0,0E0,0E0,0E0,0E0,0E0],"parents":[2147483647,0,0,1,1,2,2,4,4,5,5,6,6],"right_children":[2,4,6,-1,8,10,12,-1,-1,-1,-1,-1,-1],"split_conditions":[5.2E-1,4.2034E2,2.3068E2,-5.608896E-3,2.0951E2,2.2668E2,2.784E1,-4.3943473E-3,-2.8468382E-3,1.2770775E-4,-6.8563235E-4,-1.3099198E-3,-3.2357406E-3],"split_indices":[6,2,1,0,1,1,0,0,0,0,0,0,0],"split_type":[0,0,0,0,0,0,0,0,0,0,0,0,0],"sum_hessian":[6.090942E2,1.7394102E2,4.3515317E2,4.0261692E1,1.3367934E2,2.8706195E2,1.4809122E2,4.1917805E1,9.1761536E1,2.3005864E2,5.7003304E1,1.0041722E2,4.7674E1],"tree_param":{"num_deleted":"0","num_feature":"9","num_nodes":"13","size_leaf_vector":"1"}},{"base_weights":[-1.4572894E-2,-3.5365753E-2,-6.2177107E-3,-5.0822664E-3,-3.037484E-2,-3.2238083E-4,-1.7579839E-2,-3.5135157E-3,-2.1382016E-3,-1.84719E-4,5.708634E-4,-2.3805783E-3,-6.286022E-4],"categories":[],"categories_nodes":[],"categories_segments":[],"categories_sizes":[],"default_left":[0,0,0,0,0,0,0,0,0,0,0,0,0],"id":26,"left_children":[1,3,5,-1,7,9,11,-1,-1,-1,-1,-1,-1],"loss_changes":[1.0565922E-1,1.1916697E-2,2.9197037E-2,0E0,5.001433E-3,2.6595492E-3,1.0321114E-2,0E0,0E0,0E0,0E0,0E0,0E0],"parents":[2147483647,0,0,1,1,2,2,4,4,5,5,6,6],"right_children":[2,4,6,-1,8,10,12,-1,-1,-1,-1,-1,-1],"split_conditions":[5.2E-1,4.2034E2,2.3068E2,-5.0822664E-3,2.719E1,6.435E1,2.3748E2,-3.5135157E-3,-2.1382016E-3,-1.84719E-4,5.708634E-4,-2.3805783E-3,-6.286022E-4],"split_indices":[6,2,1,0,0,5,1,0,0,0,0,0,0],"split_type":[0,0,0,0,0,0,0,0,0,0,0,0,0],"sum_hessian":[6.0845294E2,1.7348424E2,4.3496872E2,4.010269E1,1.3338155E2,2.8705588E2,1.4791284E2,8.531392E1,4.8067627E1,2.2968007E2,5.7375816E1,9.4635345E1,5.3277496E1],"tree_param":{"num_deleted":"0","num_feature":"9","num_nodes":"13","size_leaf_vector":"1"}},{"base_weights":[-1.3151686E-2,-3.1970978E-2,-5.6045763E-3,-4.6033985E-3,-2.743762E-2,-2.9224583E-3,-2.696143E-3,-3.643442E-3,-2.298511E-3,1.14622955E-4,-8.846053E-4],"categories":[],"categories_nodes":[],"categories_segments":[],"categories_sizes":[],"default_left":[0,0,0,0,0,0,0,0,0,0,0],"id":27,"left_children":[1,3,5,-1,7,9,-1,-1,-1,-1,-1],"loss_changes":[8.629956E-2,9.834394E-3,2.4884567E-2,0E0,4.5348406E-3,9.368618E-3,0E0,0E0,0E0,0E0,0E0],"parents":[2147483647,0,0,1,1,2,2,4,4,5,5],"right_children":[2,4,6,-1,8,10,-1,-1,-1,-1,-1],"split_conditions":[5.2E-1,4.2034E2,2.784E1,-4.6033985E-3,2.0951E2,2.2668E2,-2.696143E-3,-3.643442E-3,-2.298511E-3,1.14622955E-4,-8.846053E-4],"split_indices":[6,2,0,0,1,1,0,0,0,0,0],"split_type":[0,0,0,0,0,0,0,0,0,0,0],"sum_hessian":[6.078712E2,1.730705E2,4.348007E2,3.995889E1,1.331116E2,3.8729834E2,4.7502342E1,4.1689774E1,9.142183E1,2.3007513E2,1.5722322E2],"tree_param":{"num_deleted":"0","num_feature":"9","num_nodes":"11","size_leaf_vector":"1"}},{"base_weights":[-1.18710315E-2,-2.8900106E-2,-5.054143E-3,-3.3265527E-2,-1.708922E-3,-2.6327358E-3,-2.4364553E-3,-2.4308765E-3,-3.7682143E-3,-1.4642302E-3,-9.371136E-5],"categories":[],"categories_nodes":[],"categories_segments":[],"categories_sizes":[],"default_left":[0,0,0,0,0,0,0,0,0,0,0],"id":28,"left_children":[1,3,5,7,-1,9,-1,-1,-1,-1,-1],"loss_changes":[7.047424E-2,8.387268E-3,2.0306164E-2,4.059151E-3,0E0,7.892086E-3,0E0,0E0,0E0,0E0,0E0],"parents":[2147483647,0,0,1,1,2,2,3,3,5,5],"right_children":[2,4,6,8,-1,10,-1,-1,-1,-1,-1],"split_conditions":[5.2E-1,2.719E1,2.784E1,2.67E1,-1.708922E-3,9.71E1,-2.4364553E-3,-2.4308765E-3,-3.7682143E-3,-1.4642302E-3,-9.371136E-5],"split_indices":[6,0,0,0,0,3,0,0,0,0,0],"split_type":[0,0,0,0,0,0,0,0,0,0,0],"sum_hessian":[6.073483E2,1.7269768E2,4.3465063E2,1.247663E2,4.7931385E1,3.8723062E2,4.7420006E1,4.335254E1,8.141376E1,4.6963978E1,3.4026663E2],"tree_param":{"num_deleted":"0","num_feature":"9","num_nodes":"11","size_leaf_vector":"1"}},{"base_weights":[-1.0712947E-2,-2.6109625E-2,-4.55961E-3,-3.8110856E-3,-2.2257164E-2,-1.1217719E-4,-1.3155229E-2,-2.588726E-3,-1.5432822E-3,3.0775546E-4,-2.2908277E-4,-1.7822193E-3,-4.7137355E-4],"categories":[],"categories_nodes":[],"categories_segments":[],"categories_sizes":[],"default_left":[0,0,0,0,0,0,0,0,0,0,0,0,0],"id":29,"left_children":[1,3,5,-1,7,9,11,-1,-1,-1,-1,-1,-1],"loss_changes":[5.747158E-2,7.166907E-3,1.6647598E-2,0E0,2.9110685E-3,2.0086009E-3,5.766075E-3,0E0,0E0,0E0,0E0,0E0,0E0],"parents":[2147483647,0,0,1,1,2,2,4,4,5,5,6,6],"right_children":[2,4,6,-1,8,10,12,-1,-1,-1,-1,-1,-1],"split_conditions":[5.2E-1,4.2034E2,2.3068E2,-3.8110856E-3,2.719E1,2.0526E2,2.3748E2,-2.588726E-3,-1.5432822E-3,3.0775546E-4,-2.2908277E-4,-1.7822193E-3,-4.7137355E-4],"split_indices":[6,2,1,0,0,1,1,0,0,0,0,0,0],"split_type":[0,0,0,0,0,0,0,0,0,0,0,0,0],"sum_hessian":[6.068748E2,1.7235945E2,4.3451535E2,3.972258E1,1.3263687E2,2.8702148E2,1.4749385E2,8.475793E1,4.787895E1,1.1631448E2,1.7070702E2,9.426645E1,5.3227406E1],"tree_param":{"num_deleted":"0","num_feature":"9","num_nodes":"13","size_leaf_vector":"1"}},{"base_weights":[-9.666007E-3,-2.3588413E-2,-4.110083E-3,-3.448919E-3,-2.0093748E-2,-2.0859062E-3,-2.02926E-3,-2.6883145E-3,-1.6747502E-3,1.0831233E-4,-6.7070633E-4],"categories":[],"categories_nodes":[],"categories_segments":[],"categories_sizes":[],"default_left":[0,0,0,0,0,0,0,0,0,0,0],"id":30,"left_children":[1,3,5,-1,7,9,-1,-1,-1,-1,-1],"loss_changes":[4.689013E-2,5.8994293E-3,1.4219482E-2,0E0,2.581384E-3,5.690834E-3,0E0,0E0,0E0,0E0,0E0],"parents":[2147483647,0,0,1,1,2,2,4,4,5,5],"right_children":[2,4,6,-1,8,10,-1,-1,-1,-1,-1],"split_conditions":[5.2E-1,4.2034E2,2.784E1,-3.448919E-3,2.0951E2,2.2668E2,-2.02926E-3,-2.6883145E-3,-1.6747502E-3,1.0831233E-4,-6.7070633E-4],"split_indices":[6,2,0,0,1,1,0,0,0,0,0],"split_type":[0,0,0,0,0,0,0,0,0,0,0],"sum_hessian":[6.064464E2,1.7205467E2,4.3439172E2,3.9615234E1,1.3243944E2,3.8710046E2,4.7291252E1,4.1402214E1,9.1037224E1,2.3008308E2,1.5701738E2],"tree_param":{"num_deleted":"0","num_feature":"9","num_nodes":"11","size_leaf_vector":"1"}},{"base_weights":[-8.7228045E-3,-2.1310572E-2,-3.7061865E-3,-2.4652977E-2,-1.230875E-3,-1.8790817E-3,-1.8330166E-3,-1.785888E-3,-2.8017354E-3,9.752169E-5,-6.043175E-4],"categories":[],"categories_nodes":[],"categories_segments":[],"categories_sizes":[],"default_left":[0,0,0,0,0,0,0,0,0,0,0],"id":31,"left_children":[1,3,5,7,-1,9,-1,-1,-1,-1,-1],"loss_changes":[3.825574E-2,4.895121E-3,1.1596068E-2,2.3568794E-3,0E0,4.6181087E-3,0E0,0E0,0E0,0E0,0E0],"parents":[2147483647,0,0,1,1,2,2,3,3,5,5],"right_children":[2,4,6,8,-1,10,-1,-1,-1,-1,-1],"split_conditions":[5.2E-1,2.719E1,2.784E1,2.67E1,-1.230875E-3,2.2668E2,-1.8330166E-3,-1.785888E-3,-2.8017354E-3,9.752169E-5,-6.043175E-4],"split_indices":[6,0,0,0,0,1,0,0,0,0,0],"split_type":[0,0,0,0,0,0,0,0,0,0,0],"sum_hessian":[6.060613E2,1.7178017E2,4.3428113E2,1.2399993E2,4.7780235E1,3.870518E2,4.7229355E1,4.3156647E1,8.0843285E1,2.3009668E2,1.569551E2],"tree_param":{"num_deleted":"0","num_feature":"9","num_nodes":"11","size_leaf_vector":"1"}},{"base_weights":[-7.869051E-3,-1.9242598E-2,-3.3418331E-3,-2.8529367E-3,-1.627626E-2,-1.6926687E-3,-1.6555478E-3,-1.9034789E-3,-1.1112096E-3,-1.0249908E-3,-4.880405E-5],"categories":[],"categories_nodes":[],"categories_segments":[],"categories_sizes":[],"default_left":[0,0,0,0,0,0,0,0,0,0,0],"id":32,"left_children":[1,3,5,-1,7,9,-1,-1,-1,-1,-1],"loss_changes":[3.117565E-2,4.2884797E-3,9.455219E-3,0E0,1.6844422E-3,3.994697E-3,0E0,0E0,0E0,0E0,0E0],"parents":[2147483647,0,0,1,1,2,2,4,4,5,5],"right_children":[2,4,6,-1,8,10,-1,-1,-1,-1,-1],"split_conditions":[5.2E-1,4.2034E2,2.784E1,-2.8529367E-3,2.719E1,9.71E1,-1.6555478E-3,-1.9034789E-3,-1.1112096E-3,-1.0249908E-3,-4.880405E-5],"split_indices":[6,2,0,0,0,3,0,0,0,0,0],"split_type":[0,0,0,0,0,0,0,0,0,0,0],"sum_hessian":[6.057126E2,1.7153117E2,4.341814E2,3.94395E1,1.3209167E2,3.8700793E2,4.717347E1,8.434919E1,4.774249E1,4.683073E1,3.4017722E2],"tree_param":{"num_deleted":"0","num_feature":"9","num_nodes":"11","size_leaf_vector":"1"}},{"base_weights":[-7.1005276E-3,-1.7376296E-2,-3.014752E-3,-2.5800876E-3,-1.4688111E-2,3.5359277E-5,-8.925867E-3,-1.9781373E-3,-1.2186144E-3,-1.13801696E-4,4.667026E-4,-1.2238853E-3,-2.9558205E-4],"categories":[],"categories_nodes":[],"categories_segments":[],"categories_sizes":[],"default_left":[0,0,0,0,0,0,0,0,0,0,0,0,0],"id":33,"left_children":[1,3,5,-1,7,9,11,-1,-1,-1,-1,-1,-1],"loss_changes":[2.5406944E-2,3.523238E-3,7.844825E-3,0E0,1.4531128E-3,1.5704824E-3,2.8929468E-3,0E0,0E0,0E0,0E0,0E0,0E0],"parents":[2147483647,0,0,1,1,2,2,4,4,5,5,6,6],"right_children":[2,4,6,-1,8,10,12,-1,-1,-1,-1,-1,-1],"split_conditions":[5.2E-1,4.2034E2,2.3068E2,-2.5800876E-3,2.0951E2,6.435E1,2.3748E2,-1.9781373E-3,-1.2186144E-3,-1.13801696E-4,4.667026E-4,-1.2238853E-3,-2.9558205E-4],"split_indices":[6,2,1,0,1,5,1,0,0,0,0,0,0],"split_type":[0,0,0,0,0,0,0,0,0,0,0,0,0],"sum_hessian":[6.0539844E2,1.713069E2,4.3409155E2,3.935942E1,1.3194748E2,2.8699652E2,1.47095E2,4.11902E1,9.075728E1,2.295876E2,5.7408924E1,9.3923546E1,5.3171463E1],"tree_param":{"num_deleted":"0","num_feature":"9","num_nodes":"13","size_leaf_vector":"1"}},{"base_weights":[-6.4053102E-3,-1.5691742E-2,-2.7165457E-3,-2.3328983E-3,-1.3257026E-2,-1.3402057E-3,-1.3763447E-3,-1.5623403E-3,-8.844826E-4,8.958019E-5,-4.6061198E-4],"categories":[],"categories_nodes":[],"categories_segments":[],"categories_sizes":[],"default_left":[0,0,0,0,0,0,0,0,0,0,0],"id":34,"left_children":[1,3,5,-1,7,9,-1,-1,-1,-1,-1],"loss_changes":[2.072009E-2,2.890937E-3,6.5955613E-3,0E0,1.2485534E-3,2.8369792E-3,0E0,0E0,0E0,0E0,0E0],"parents":[2147483647,0,0,1,1,2,2,4,4,5,5],"right_children":[2,4,6,-1,8,10,-1,-1,-1,-1,-1],"split_conditions":[5.2E-1,4.2034E2,2.784E1,-2.3328983E-3,2.719E1,2.2668E2,-1.3763447E-3,-1.5623403E-3,-8.844826E-4,8.958019E-5,-4.6061198E-4],"split_indices":[6,2,0,0,0,1,0,0,0,0,0],"split_type":[0,0,0,0,0,0,0,0,0,0,0],"sum_hessian":[6.051142E2,1.7110498E2,4.340092E2,3.928708E1,1.318179E2,3.869235E2,4.7085712E1,8.414683E1,4.7671078E1,2.3010669E2,1.568168E2],"tree_param":{"num_deleted":"0","num_feature":"9","num_nodes":"11","size_leaf_vector":"1"}},{"base_weights":[-5.778284E-3,-1.416625E-2,-2.4493877E-3,-2.108998E-3,-1.1960903E-2,-1.2072508E-3,-1.2427069E-3,-1.6368332E-3,-9.805452E-4,1.5802891E-4,-3.4214617E-4],"categories":[],"categories_nodes":[],"categories_segments":[],"categories_sizes":[],"default_left":[0,0,0,0,0,0,0,0,0,0,0],"id":35,"left_children":[1,3,5,-1,7,9,-1,-1,-1,-1,-1],"loss_changes":[1.6882475E-2,2.372861E-3,5.375437E-3,0E0,1.1001565E-3,2.3995542E-3,0E0,0E0,0E0,0E0,0E0],"parents":[2147483647,0,0,1,1,2,2,4,4,5,5],"right_children":[2,4,6,-1,8,10,-1,-1,-1,-1,-1],"split_conditions":[5.2E-1,4.2034E2,2.784E1,-2.108998E-3,2.0951E2,1.3993E2,-1.2427069E-3,-1.6368332E-3,-9.805452E-4,1.5802891E-4,-3.4214617E-4],"split_indices":[6,2,0,0,1,4,0,0,0,0,0],"split_type":[0,0,0,0,0,0,0,0,0,0,0],"sum_hessian":[6.04858E2,1.7092221E2,4.3393576E2,3.922172E1,1.3170049E2,3.8689197E2,4.704378E1,4.1088844E1,9.061163E1,1.7139885E2,2.1549313E2],"tree_param":{"num_deleted":"0","num_feature":"9","num_nodes":"11","size_leaf_vector":"1"}},{"base_weights":[-5.212858E-3,-1.27901295E-2,-2.2081258E-3,-1.4943748E-2,-7.027411E-4,9.576698E-5,-6.6797426E-3,-1.0647652E-3,-1.7084297E-3,-8.847938E-5,3.963165E-4,-9.3522493E-4,-1.8791427E-4],"categories":[],"categories_nodes":[],"categories_segments":[],"categories_sizes":[],"default_left":[0,0,0,0,0,0,0,0,0,0,0,0,0],"id":36,"left_children":[1,3,5,7,-1,9,11,-1,-1,-1,-1,-1,-1],"loss_changes":[1.376049E-2,2.0266194E-3,4.480724E-3,9.597186E-4,0E0,1.0956123E-3,1.8797237E-3,0E0,0E0,0E0,0E0,0E0,0E0],"parents":[2147483647,0,0,1,1,2,2,3,3,5,5,6,6],"right_children":[2,4,6,8,-1,10,12,-1,-1,-1,-1,-1,-1],"split_conditions":[5.2E-1,2.719E1,2.3068E2,2.67E1,-7.027411E-4,6.435E1,2.3748E2,-1.0647652E-3,-1.7084297E-3,-8.847938E-5,3.963165E-4,-9.3522493E-4,-1.8791427E-4],"split_indices":[6,0,1,0,0,5,1,0,0,0,0,0,0],"split_type":[0,0,0,0,0,0,0,0,0,0,0,0,0],"sum_hessian":[6.046277E2,1.7075772E2,4.3386996E2,1.2314378E2,4.761393E1,2.8698596E2,1.4688402E2,4.2939064E1,8.020472E1,2.2955464E2,5.7431297E1,9.374679E1,5.3137226E1],"tree_param":{"num_deleted":"0","num_feature":"9","num_nodes":"13","size_leaf_vector":"1"}},{"base_weights":[-4.700555E-3,-1.1541979E-2,-1.989603E-3,-1.74188E-3,-9.675548E-3,-9.551476E-4,-1.0310286E-3,-1.1469483E-3,-6.3420506E-4,1.3493435E-4,-2.7867826E-4],"categories":[],"categories_nodes":[],"categories_segments":[],"categories_sizes":[],"default_left":[0,0,0,0,0,0,0,0,0,0,0],"id":37,"left_children":[1,3,5,-1,7,9,-1,-1,-1,-1,-1],"loss_changes":[1.1205582E-2,1.7137807E-3,3.7327192E-3,0E0,7.1958173E-4,1.6407932E-3,0E0,0E0,0E0,0E0,0E0],"parents":[2147483647,0,0,1,1,2,2,4,4,5,5],"right_children":[2,4,6,-1,8,10,-1,-1,-1,-1,-1],"split_conditions":[5.2E-1,4.2034E2,2.784E1,-1.74188E-3,2.719E1,1.3993E2,-1.0310286E-3,-1.1469483E-3,-6.3420506E-4,1.3493435E-4,-2.7867826E-4],"split_indices":[6,2,0,0,0,4,0,0,0,0,0],"split_type":[0,0,0,0,0,0,0,0,0,0,0],"sum_hessian":[6.044178E2,1.706085E2,4.338093E2,3.91149E1,1.314936E2,3.8683185E2,4.697746E1,8.390121E1,4.75924E1,1.7142056E2,2.154113E2],"tree_param":{"num_deleted":"0","num_feature":"9","num_nodes":"11","size_leaf_vector":"1"}},{"base_weights":[-4.2397385E-3,-1.0417002E-2,-1.7935807E-3,-1.5740473E-3,-8.727465E-3,1.1872379E-4,-5.5081444E-3,-1.2026493E-3,-7.1182783E-4,-7.238619E-5,3.44007E-4,-7.786593E-4,-1.4217618E-4],"categories":[],"categories_nodes":[],"categories_segments":[],"categories_sizes":[],"default_left":[0,0,0,0,0,0,0,0,0,0,0,0,0],"id":38,"left_children":[1,3,5,-1,7,9,11,-1,-1,-1,-1,-1,-1],"loss_changes":[9.126681E-3,1.4049001E-3,3.088888E-3,0E0,6.1731413E-4,8.0841285E-4,1.3647941E-3,0E0,0E0,0E0,0E0,0E0,0E0],"parents":[2147483647,0,0,1,1,2,2,4,4,5,5,6,6],"right_children":[2,4,6,-1,8,10,12,-1,-1,-1,-1,-1,-1],"split_conditions":[5.2E-1,4.2034E2,2.3068E2,-1.5740473E-3,2.0951E2,6.435E1,2.3748E2,-1.2026493E-3,-7.1182783E-4,-7.238619E-5,3.44007E-4,-7.786593E-4,-1.4217618E-4],"split_indices":[6,2,1,0,1,5,1,0,0,0,0,0,0],"split_type":[0,0,0,0,0,0,0,0,0,0,0,0,0],"sum_hessian":[6.042299E2,1.7047418E2,4.3375574E2,3.9066208E1,1.3140797E2,2.8698187E2,1.4677386E2,4.096043E1,9.044754E1,2.2953392E2,5.7447937E1,9.365118E1,5.3122684E1],"tree_param":{"num_deleted":"0","num_feature":"9","num_nodes":"13","size_leaf_vector":"1"}},{"base_weights":[-3.82382E-3,-9.4026895E-3,-1.6159348E-3,-1.104209E-2,-5.0286687E-4,6.830474E-4,-4.205505E-3,-7.8086037E-4,-1.2657426E-3,-1.3483009E-5,3.1011918E-4,-2.858465E-4,-8.549113E-4],"categories":[],"categories_nodes":[],"categories_segments":[],"categories_sizes":[],"default_left":[0,0,0,0,0,0,0,0,0,0,0,0,0],"id":39,"left_children":[1,3,5,7,-1,9,11,-1,-1,-1,-1,-1,-1],"loss_changes":[7.4376306E-3,1.1732066E-3,2.5908428E-3,5.47803E-4,0E0,4.5754135E-4,1.1725205E-3,0E0,0E0,0E0,0E0,0E0,0E0],"parents":[2147483647,0,0,1,1,2,2,3,3,5,5,6,6],"right_children":[2,4,6,8,-1,10,12,-1,-1,-1,-1,-1,-1],"split_conditions":[5.2E-1,2.719E1,2.2668E2,2.67E1,-5.0286687E-4,6.435E1,2.784E1,-7.8086037E-4,-1.2657426E-3,-1.3483009E-5,3.1011918E-4,-2.858465E-4,-8.549113E-4],"split_indices":[6,0,1,0,0,5,0,0,0,0,0,0,0],"split_type":[0,0,0,0,0,0,0,0,0,0,0,0,0],"sum_hessian":[6.040596E2,1.703533E2,4.337063E2,1.22802124E2,4.755118E1,2.3013345E2,2.0357283E2,4.285381E1,7.994831E1,1.7267473E2,5.7458717E1,1.5665047E2,4.692237E1],"tree_param":{"num_deleted":"0","num_feature":"9","num_nodes":"13","size_leaf_vector":"1"}},{"base_weights":[-3.4480565E-3,-8.483093E-3,-1.4564724E-3,-1.3000125E-3,-7.05326E-3,-6.7949697E-4,-7.716407E-4,-8.411117E-4,-4.5377514E-4,-5.056642E-4,-6.5719805E-6],"categories":[],"categories_nodes":[],"categories_segments":[],"categories_sizes":[],"default_left":[0,0,0,0,0,0,0,0,0,0,0],"id":40,"left_children":[1,3,5,-1,7,9,-1,-1,-1,-1,-1],"loss_changes":[6.053458E-3,1.0143016E-3,2.1088729E-3,0E0,4.135822E-4,1.0414361E-3,0E0,0E0,0E0,0E0,0E0],"parents":[2147483647,0,0,1,1,2,2,4,4,5,5],"right_children":[2,4,6,-1,8,10,-1,-1,-1,-1,-1],"split_conditions":[5.2E-1,4.2034E2,2.784E1,-1.3000125E-3,2.719E1,9.71E1,-7.716407E-4,-8.411117E-4,-4.5377514E-4,-5.056642E-4,-6.5719805E-6],"split_indices":[6,2,0,0,0,3,0,0,0,0,0],"split_type":[0,0,0,0,0,0,0,0,0,0,0],"sum_hessian":[6.039058E2,1.7024368E2,4.3366217E2,3.8986893E1,1.3125679E2,3.867658E2,4.6896355E1,8.3721E1,4.7535786E1,4.6673775E1,3.4009204E2],"tree_param":{"num_deleted":"0","num_feature":"9","num_nodes":"11","size_leaf_vector":"1"}},{"base_weights":[-3.1104642E-3,-7.654553E-3,-1.3139434E-3,-1.1743885E-3,-6.3608075E-3,6.225185E-4,-3.4964485E-3,-8.819217E-4,-5.164198E-4,-1.1497275E-5,2.802501E-4,-2.4208837E-4,-6.9644226E-4],"categories":[],"categories_nodes":[],"categories_segments":[],"categories_sizes":[],"default_left":[0,0,0,0,0,0,0,0,0,0,0,0,0],"id":41,"left_children":[1,3,5,-1,7,9,11,-1,-1,-1,-1,-1,-1],"loss_changes":[4.9269916E-3,8.3075184E-4,1.8390386E-3,0E0,3.4333905E-4,3.7193185E-4,7.4586226E-4,0E0,0E0,0E0,0E0,0E0,0E0],"parents":[2147483647,0,0,1,1,2,2,4,4,5,5,6,6],"right_children":[2,4,6,-1,8,10,12,-1,-1,-1,-1,-1,-1],"split_conditions":[5.2E-1,4.2034E2,2.2668E2,-1.1743885E-3,2.0951E2,6.435E1,2.784E1,-8.819217E-4,-5.164198E-4,-1.1497275E-5,2.802501E-4,-2.4208837E-4,-6.9644226E-4],"split_indices":[6,2,1,0,1,5,0,0,0,0,0,0,0],"split_type":[0,0,0,0,0,0,0,0,0,0,0,0,0],"sum_hessian":[6.037676E2,1.7014497E2,4.336226E2,3.895061E1,1.3119437E2,2.3014107E2,2.034815E2,4.0865932E1,9.032843E1,1.7267285E2,5.746822E1,1.5660864E2,4.687287E1],"tree_param":{"num_deleted":"0","num_feature":"9","num_nodes":"13","size_leaf_vector":"1"}},{"base_weights":[-2.8054677E-3,-6.907992E-3,-1.1842311E-3,-1.0608074E-3,-5.737951E-3,5.6142145E-4,-3.1521702E-3,-6.9012574E-4,-3.5899482E-4,-1.0353529E-5,2.5266863E-4,-2.180701E-4,-6.2855595E-4],"categories":[],"categories_nodes":[],"categories_segments":[],"categories_sizes":[],"default_left":[0,0,0,0,0,0,0,0,0,0,0,0,0],"id":42,"left_children":[1,3,5,-1,7,9,11,-1,-1,-1,-1,-1,-1],"loss_changes":[4.013397E-3,6.796755E-4,1.4947216E-3,0E0,3.0541047E-4,3.0233047E-4,6.086E-4,0E0,0E0,0E0,0E0,0E0,0E0],"parents":[2147483647,0,0,1,1,2,2,4,4,5,5,6,6],"right_children":[2,4,6,-1,8,10,12,-1,-1,-1,-1,-1,-1],"split_conditions":[5.2E-1,4.2034E2,2.2668E2,-1.0608074E-3,2.719E1,6.435E1,2.784E1,-6.9012574E-4,-3.5899482E-4,-1.0353529E-5,2.5266863E-4,-2.180701E-4,-6.2855595E-4],"split_indices":[6,2,1,0,0,5,0,0,0,0,0,0,0],"split_type":[0,0,0,0,0,0,0,0,0,0,0,0,0],"sum_hessian":[6.036428E2,1.700562E2,4.335866E2,3.891785E1,1.3113835E2,2.3014876E2,2.0343785E2,8.363228E1,4.7506077E1,1.7267175E2,5.7477E1,1.5658617E2,4.6851685E1],"tree_param":{"num_deleted":"0","num_feature":"9","num_nodes":"13","size_leaf_vector":"1"}},{"base_weights":[-2.529951E-3,-6.2326933E-3,-1.0672807E-3,-9.5814123E-4,-5.1742494E-3,5.0627056E-4,-2.8415993E-3,-7.293441E-4,-4.1464777E-4,-9.3225235E-6,2.2778151E-4,-1.9642233E-4,-5.672369E-4],"categories":[],"categories_nodes":[],"categories_segments":[],"categories_sizes":[],"default_left":[0,0,0,0,0,0,0,0,0,0,0,0,0],"id":43,"left_children":[1,3,5,-1,7,9,11,-1,-1,-1,-1,-1,-1],"loss_changes":[3.2674165E-3,5.564359E-4,1.2147059E-3,0E0,2.5745085E-4,2.4570743E-4,4.965124E-4,0E0,0E0,0E0,0E0,0E0,0E0],"parents":[2147483647,0,0,1,1,2,2,4,4,5,5,6,6],"right_children":[2,4,6,-1,8,10,12,-1,-1,-1,-1,-1,-1],"split_conditions":[5.2E-1,4.2034E2,2.2668E2,-9.5814123E-4,2.0951E2,6.435E1,2.784E1,-7.293441E-4,-4.1464777E-4,-9.3225235E-6,2.2778151E-4,-1.9642233E-4,-5.672369E-4],"split_indices":[6,2,1,0,1,5,0,0,0,0,0,0,0],"split_type":[0,0,0,0,0,0,0,0,0,0,0,0,0],"sum_hessian":[6.0353E2,1.6997586E2,4.335542E2,3.8888275E1,1.3108759E2,2.301557E2,2.0339848E2,4.0821087E1,9.026649E1,1.7267079E2,5.7484917E1,1.5656593E2,4.683256E1],"tree_param":{"num_deleted":"0","num_feature":"9","num_nodes":"13","size_leaf_vector":"1"}},{"base_weights":[-2.2818265E-3,-5.624262E-3,-9.619574E-4,-6.674788E-3,-2.833941E-4,4.5647542E-4,-2.561688E-3,-4.6531027E-4,-7.6888094E-4,-8.406929E-6,2.0536136E-4,-1.7692686E-4,-5.1190733E-4],"categories":[],"categories_nodes":[],"categories_segments":[],"categories_sizes":[],"default_left":[0,0,0,0,0,0,0,0,0,0,0,0,0],"id":44,"left_children":[1,3,5,7,-1,9,11,-1,-1,-1,-1,-1,-1],"loss_changes":[2.6610733E-3,4.8205443E-4,9.871547E-4,2.1724124E-4,0E0,1.9974045E-4,4.05089E-4,0E0,0E0,0E0,0E0,0E0,0E0],"parents":[2147483647,0,0,1,1,2,2,3,3,5,5,6,6],"right_children":[2,4,6,8,-1,10,12,-1,-1,-1,-1,-1,-1],"split_conditions":[5.2E-1,2.719E1,2.2668E2,2.67E1,-2.833941E-4,6.435E1,2.784E1,-4.6531027E-4,-7.6888094E-4,-8.406929E-6,2.0536136E-4,-1.7692686E-4,-5.1190733E-4],"split_indices":[6,0,1,0,0,5,0,0,0,0,0,0,0],"split_type":[0,0,0,0,0,0,0,0,0,0,0,0,0],"sum_hessian":[6.034286E2,1.6990358E2,4.33525E2,1.2242119E2,4.7482395E1,2.3016197E2,2.03363E2,4.275933E1,7.966186E1,1.7266992E2,5.749205E1,1.565477E2,4.681531E1],"tree_param":{"num_deleted":"0","num_feature":"9","num_nodes":"13","size_leaf_vector":"1"}},{"base_weights":[-2.0572976E-3,-5.072801E-3,-8.669143E-4,-7.9082645E-4,-4.1785585E-3,1.1227211E-4,-2.7725927E-3,-5.0591235E-4,-2.5569054E-4,1.1907481E-4,-6.2667306E-5,-4.2294172E-4,-1.775807E-5],"categories":[],"categories_nodes":[],"categories_segments":[],"categories_sizes":[],"default_left":[0,0,0,0,0,0,0,0,0,0,0,0,0],"id":45,"left_children":[1,3,5,-1,7,9,11,-1,-1,-1,-1,-1,-1],"loss_changes":[2.164932E-3,4.0013017E-4,8.11092E-4,0E0,1.7555314E-4,2.302485E-4,5.569345E-4,0E0,0E0,0E0,0E0,0E0,0E0],"parents":[2147483647,0,0,1,1,2,2,4,4,5,5,6,6],"right_children":[2,4,6,-1,8,10,12,-1,-1,-1,-1,-1,-1],"split_conditions":[5.2E-1,4.2034E2,2.3068E2,-7.9082645E-4,2.719E1,2.0526E2,2.3748E2,-5.0591235E-4,-2.5569054E-4,1.1907481E-4,-6.2667306E-5,-4.2294172E-4,-1.775807E-5],"split_indices":[6,2,1,0,0,1,1,0,0,0,0,0,0],"split_type":[0,0,0,0,0,0,0,0,0,0,0,0,0],"sum_hessian":[6.033366E2,1.6983801E2,4.334986E2,3.8840145E1,1.3099786E2,2.8698132E2,1.4651727E2,8.3524155E1,4.747372E1,1.16435135E2,1.705462E2,9.3434105E1,5.3083168E1],"tree_param":{"num_deleted":"0","num_feature":"9","num_nodes":"13","size_leaf_vector":"1"}},{"base_weights":[-1.855041E-3,-4.576315E-3,-7.8111916E-4,-7.141425E-4,-3.7676352E-3,3.826483E-4,-2.0941116E-3,-5.345985E-4,-3.0035115E-4,-7.4885465E-6,1.7343373E-4,-1.4399443E-4,-4.206572E-4],"categories":[],"categories_nodes":[],"categories_segments":[],"categories_sizes":[],"default_left":[0,0,0,0,0,0,0,0,0,0,0,0,0],"id":46,"left_children":[1,3,5,-1,7,9,11,-1,-1,-1,-1,-1,-1],"loss_changes":[1.7623173E-3,3.273494E-4,6.6468597E-4,0E0,1.4309539E-4,1.4309619E-4,2.7626974E-4,0E0,0E0,0E0,0E0,0E0,0E0],"parents":[2147483647,0,0,1,1,2,2,4,4,5,5,6,6],"right_children":[2,4,6,-1,8,10,12,-1,-1,-1,-1,-1,-1],"split_conditions":[5.2E-1,4.2034E2,2.2668E2,-7.141425E-4,2.0951E2,6.435E1,2.784E1,-5.345985E-4,-3.0035115E-4,-7.4885465E-6,1.7343373E-4,-1.4399443E-4,-4.206572E-4],"split_indices":[6,2,1,0,1,5,0,0,0,0,0,0,0],"split_type":[0,0,0,0,0,0,0,0,0,0,0,0,0],"sum_hessian":[6.032534E2,1.69779E2,4.334744E2,3.8818115E1,1.3096089E2,2.3017125E2,2.0330313E2,4.076395E1,9.0196945E1,1.7266904E2,5.7502216E1,1.5651625E2,4.6786884E1],"tree_param":{"num_deleted":"0","num_feature":"9","num_nodes":"13","size_leaf_vector":"1"}},{"base_weights":[-1.6729771E-3,-4.1290084E-3,-7.0398557E-4,-4.9272617E-3,-2.0131176E-4,9.95275E-5,-2.2683332E-3,-3.413944E-4,-5.6875445E-4,9.914291E-5,-5.1172603E-5,-3.5331017E-4,-1.8772037E-6],"categories":[],"categories_nodes":[],"categories_segments":[],"categories_sizes":[],"default_left":[0,0,0,0,0,0,0,0,0,0,0,0,0],"id":47,"left_children":[1,3,5,7,-1,9,11,-1,-1,-1,-1,-1,-1],"loss_changes":[1.4349625E-3,2.7843984E-4,5.4632174E-4,1.2241048E-4,0E0,1.5750936E-4,4.1951117E-4,0E0,0E0,0E0,0E0,0E0,0E0],"parents":[2147483647,0,0,1,1,2,2,3,3,5,5,6,6],"right_children":[2,4,6,8,-1,10,12,-1,-1,-1,-1,-1,-1],"split_conditions":[5.2E-1,2.719E1,2.3068E2,2.67E1,-2.0131176E-4,2.0526E2,2.3748E2,-3.413944E-4,-5.6875445E-4,9.914291E-5,-5.1172603E-5,-3.5331017E-4,-1.8772037E-6],"split_indices":[6,0,1,0,0,1,1,0,0,0,0,0,0],"split_type":[0,0,0,0,0,0,0,0,0,0,0,0,0],"sum_hessian":[6.031789E2,1.6972594E2,4.3345294E2,1.2226924E2,4.7456703E1,2.8698306E2,1.4646988E2,4.27223E1,7.9546936E1,1.1644789E2,1.7053519E2,9.339176E1,5.3078125E1],"tree_param":{"num_deleted":"0","num_feature":"9","num_nodes":"13","size_leaf_vector":"1"}},{"base_weights":[-1.5082379E-3,-3.7237606E-3,-6.3434354E-4,-5.896605E-4,-3.040153E-3,3.203042E-4,-1.7117282E-3,-3.7064202E-4,-1.8161623E-4,-6.762542E-6,1.4662612E-4,-2.3066414E-4,-1.6986496E-6],"categories":[],"categories_nodes":[],"categories_segments":[],"categories_sizes":[],"default_left":[0,0,0,0,0,0,0,0,0,0,0,0,0],"id":48,"left_children":[1,3,5,-1,7,9,11,-1,-1,-1,-1,-1,-1],"loss_changes":[1.1672769E-3,2.3559364E-4,4.4737273E-4,0E0,1.0082999E-4,1.0286996E-4,2.0589482E-4,0E0,0E0,0E0,0E0,0E0,0E0],"parents":[2147483647,0,0,1,1,2,2,4,4,5,5,6,6],"right_children":[2,4,6,-1,8,10,12,-1,-1,-1,-1,-1,-1],"split_conditions":[5.2E-1,4.2034E2,2.2668E2,-5.896605E-4,2.719E1,6.435E1,2.3748E2,-3.7064202E-4,-1.8161623E-4,-6.762542E-6,1.4662612E-4,-2.3066414E-4,-1.6986496E-6],"split_indices":[6,2,1,0,0,5,1,0,0,0,0,0,0],"split_type":[0,0,0,0,0,0,0,0,0,0,0,0,0],"sum_hessian":[6.03111E2,1.6967781E2,4.3343323E2,3.8782394E1,1.3089542E2,2.301791E2,2.0325414E2,8.344487E1,4.745054E1,1.7266835E2,5.7510746E1,1.5017606E2,5.307807E1],"tree_param":{"num_deleted":"0","num_feature":"9","num_nodes":"13","size_leaf_vector":"1"}},{"base_weights":[-1.3596008E-3,2.6514736E-4,-2.3474297E-3,-9.64093E-5,1.3220025E-4,-3.6440433E-3,-1.2723834E-3,1.6126805E-5,-6.0734852E-5,-2.699731E-4,-4.658224E-4,-2.4515664E-4,-2.6558919E-5],"categories":[],"categories_nodes":[],"categories_segments":[],"categories_sizes":[],"default_left":[0,0,0,0,0,0,0,0,0,0,0,0,0],"id":49,"left_children":[1,3,5,7,-1,9,11,-1,-1,-1,-1,-1,-1],"loss_changes":[9.701069E-4,8.774332E-5,5.191392E-4,2.2713764E-5,0E0,1.5003234E-4,2.4505932E-4,0E0,0E0,0E0,0E0,0E0,0E0],"parents":[2147483647,0,0,1,1,2,2,3,3,5,5,6,6],"right_children":[2,4,6,8,-1,10,12,-1,-1,-1,-1,-1,-1],"split_conditions":[4.183E2,2.545E1,2.719E1,2.436E1,1.3220025E-4,2.67E1,1.365E2,1.6126805E-5,-6.0734852E-5,-2.699731E-4,-4.658224E-4,-2.4515664E-4,-2.6558919E-5],"split_indices":[2,0,0,0,0,0,4,0,0,0,0,0,0],"split_type":[0,0,0,0,0,0,0,0,0,0,0,0,0],"sum_hessian":[6.0305035E2,2.2829308E2,3.747573E2,1.7077774E2,5.7515343E1,1.6879E2,2.059673E2,1.1397974E2,5.6798004E1,8.930206E1,7.948793E1,9.420131E1,1.1176598E2],"tree_param":{"num_deleted":"0","num_feature":"9","num_nodes":"13","size_leaf_vector":"1"}}]},"name":"gbtree"},"learner_model_param":{"base_score":"2.2675498E-1","boost_from_average":"1","num_class":"0","num_feature":"9","num_target":"1"},"objective":{"name":"reg:logistic","reg_loss_param":{"scale_pos_weight":"1"}}},"version":[2,1,4]}